<?xml version="1.0"?>
<opencv_storage>
<cascade>
  <stageType>BOOST</stageType>
  <featureType>LBP</featureType>
  <height>40</height>
  <width>80</width>
  <stageParams>
    <boostType>GAB</boostType>
    <minHitRate>9.9900001287460327e-01</minHitRate>
    <maxFalseAlarm>5.0000000000000000e-01</maxFalseAlarm>
    <weightTrimRate>9.4999999999999996e-01</weightTrimRate>
    <maxDepth>1</maxDepth>
    <maxWeakCount>100</maxWeakCount></stageParams>
  <featureParams>
    <maxCatCount>256</maxCatCount>
    <featSize>1</featSize></featureParams>
  <stageNum>8</stageNum>
  <stages>
    <!-- stage 0 -->
    <_>
      <maxWeakCount>1</maxWeakCount>
      <stageThreshold>1.</stageThreshold>
      <weakClassifiers>
        <_>
          <internalNodes>
            0 -1 2 -101191425 -649002939 -536870901 -612171517
            -922189617 -1433485048 -905780513 -69469597</internalNodes>
          <leafValues>
            -1. 1.</leafValues></_></weakClassifiers></_>
    <!-- stage 1 -->
    <_>
      <maxWeakCount>1</maxWeakCount>
      <stageThreshold>1.</stageThreshold>
      <weakClassifiers>
        <_>
          <internalNodes>
            0 -1 8 -682371617 285549069 33882119 -648560635 -1739855617
            -1979056128 -770991990 -68162849</internalNodes>
          <leafValues>
            -1. 1.</leafValues></_></weakClassifiers></_>
    <!-- stage 2 -->
    <_>
      <maxWeakCount>1</maxWeakCount>
      <stageThreshold>7.7777779102325439e-01</stageThreshold>
      <weakClassifiers>
        <_>
          <internalNodes>
            0 -1 7 -246691361 -1321086965 1636016147 -851230701
            -208956093 -494763901 -2097068917 -70267957</internalNodes>
          <leafValues>
            -1. 7.7777779102325439e-01</leafValues></_></weakClassifiers></_>
    <!-- stage 3 -->
    <_>
      <maxWeakCount>1</maxWeakCount>
      <stageThreshold>7.7777779102325439e-01</stageThreshold>
      <weakClassifiers>
        <_>
          <internalNodes>
            0 -1 6 -606868521 -249982932 1224738073 -145014399
            -654065473 -860749687 -1996193297 -5506165</internalNodes>
          <leafValues>
            -1. 7.7777779102325439e-01</leafValues></_></weakClassifiers></_>
    <!-- stage 4 -->
    <_>
      <maxWeakCount>1</maxWeakCount>
      <stageThreshold>7.7777779102325439e-01</stageThreshold>
      <weakClassifiers>
        <_>
          <internalNodes>
            0 -1 1 2131329017 2144270786 -783221771 -145419233 331414201
            -741764735 -1730049605 -550527523</internalNodes>
          <leafValues>
            -1. 7.7777779102325439e-01</leafValues></_></weakClassifiers></_>
    <!-- stage 5 -->
    <_>
      <maxWeakCount>2</maxWeakCount>
      <stageThreshold>0.</stageThreshold>
      <weakClassifiers>
        <_>
          <internalNodes>
            0 -1 4 -548929569 -82099373 948013383 -578430467 -242486625
            -241610745 -1172209825 -2756101</internalNodes>
          <leafValues>
            -9.9484539031982422e-01 1.</leafValues></_>
        <_>
          <internalNodes>
            0 -1 0 -140523521 -117079033 1073807545 -611368953
            -1073184629 -2009038784 -620658293 -14681137</internalNodes>
          <leafValues>
            -1. 1.</leafValues></_></weakClassifiers></_>
    <!-- stage 6 -->
    <_>
      <maxWeakCount>1</maxWeakCount>
      <stageThreshold>7.7777779102325439e-01</stageThreshold>
      <weakClassifiers>
        <_>
          <internalNodes>
            0 -1 5 1531648511 -771453357 1342275989 -553447033
            -1962700421 -72875632 -376529429 -1968657</internalNodes>
          <leafValues>
            -1. 7.7777779102325439e-01</leafValues></_></weakClassifiers></_>
    <!-- stage 7 -->
    <_>
      <maxWeakCount>1</maxWeakCount>
      <stageThreshold>1.</stageThreshold>
      <weakClassifiers>
        <_>
          <internalNodes>
            0 -1 3 -241702401 1360400977 34603091 -217558481 -769457465
            -360577023 -521731911 -40988413</internalNodes>
          <leafValues>
            -1. 1.</leafValues></_></weakClassifiers></_></stages>
  <features>
    <_>
      <rect>
        0 0 2 8</rect></_>
    <_>
      <rect>
        24 0 11 10</rect></_>
    <_>
      <rect>
        25 0 10 10</rect></_>
    <_>
      <rect>
        25 4 5 9</rect></_>
    <_>
      <rect>
        32 0 5 8</rect></_>
    <_>
      <rect>
        33 17 4 3</rect></_>
    <_>
      <rect>
        34 9 3 3</rect></_>
    <_>
      <rect>
        35 19 3 7</rect></_>
    <_>
      <rect>
        37 13 3 5</rect></_></features></cascade>
</opencv_storage>
