<?xml version="1.0"?>
<opencv_storage>
<cascade>
  <stageType>BOOST</stageType>
  <featureType>LBP</featureType>
  <height>40</height>
  <width>80</width>
  <stageParams>
    <boostType>GAB</boostType>
    <minHitRate>9.9900001287460327e-01</minHitRate>
    <maxFalseAlarm>5.0000000000000000e-01</maxFalseAlarm>
    <weightTrimRate>9.4999999999999996e-01</weightTrimRate>
    <maxDepth>1</maxDepth>
    <maxWeakCount>100</maxWeakCount></stageParams>
  <featureParams>
    <maxCatCount>256</maxCatCount>
    <featSize>1</featSize></featureParams>
  <stageNum>20</stageNum>
  <stages>
    <!-- stage 0 -->
    <_>
      <maxWeakCount>5</maxWeakCount>
      <stageThreshold>-9.5141249895095825e-01</stageThreshold>
      <weakClassifiers>
        <_>
          <internalNodes>
            0 -1 50 -141 -40370241 -251133953 -145554675 1091637520
            -1968 1074074964 -12714213</internalNodes>
          <leafValues>
            -6.4543890953063965e-01 7.6054954528808594e-01</leafValues></_>
        <_>
          <internalNodes>
            0 -1 8 1791396522 1212727590 268796507 -489701030 1217913098
            -2002843638 822831791 1874576335</internalNodes>
          <leafValues>
            -7.6294940710067749e-01 5.5287700891494751e-01</leafValues></_>
        <_>
          <internalNodes>
            0 -1 53 -720276815 1971962193 419758577 2004943299
            -1607376719 -377388909 1124213703 1971710627</internalNodes>
          <leafValues>
            -7.4822199344635010e-01 5.0630003213882446e-01</leafValues></_>
        <_>
          <internalNodes>
            0 -1 38 1999250195 1043021619 1869799331 -683769999
            2071461319 -21528705 -78512811 -11012225</internalNodes>
          <leafValues>
            -5.7844674587249756e-01 6.6580432653427124e-01</leafValues></_>
        <_>
          <internalNodes>
            0 -1 86 1327666073 -1722908255 1073807513 -82767613
            176980201 -1400373096 19599506 290010873</internalNodes>
          <leafValues>
            -6.8737256526947021e-01 5.2912253141403198e-01</leafValues></_></weakClassifiers></_>
    <!-- stage 1 -->
    <_>
      <maxWeakCount>5</maxWeakCount>
      <stageThreshold>-9.0207386016845703e-01</stageThreshold>
      <weakClassifiers>
        <_>
          <internalNodes>
            0 -1 14 -746396416 -243154814 1090523652 -786706289
            -671054336 -2004877310 -1304412145 -607131713</internalNodes>
          <leafValues>
            -7.8032034635543823e-01 6.3714534044265747e-01</leafValues></_>
        <_>
          <internalNodes>
            0 -1 67 -170394539 -200589144 -2130616291 -711606207
            1208631448 713031700 730868347 1060839983</internalNodes>
          <leafValues>
            -7.2023695707321167e-01 5.3071993589401245e-01</leafValues></_>
        <_>
          <internalNodes>
            0 -1 0 1963053450 1459634369 1107362304 1594450312
            -1610051143 -897056632 -922023334 2064607775</internalNodes>
          <leafValues>
            -6.8165624141693115e-01 5.3708696365356445e-01</leafValues></_>
        <_>
          <internalNodes>
            0 -1 15 -423637814 -1510015301 -553697282 -1073742098
            -1929394449 -587235329 116870958 -285227651</internalNodes>
          <leafValues>
            -5.9352761507034302e-01 6.5174031257629395e-01</leafValues></_>
        <_>
          <internalNodes>
            0 -1 102 -1014503034 1604028440 -1828682926 396067651
            -390037304 -1702191104 -1031191488 -892344826</internalNodes>
          <leafValues>
            -5.7522654533386230e-01 6.5492409467697144e-01</leafValues></_></weakClassifiers></_>
    <!-- stage 2 -->
    <_>
      <maxWeakCount>6</maxWeakCount>
      <stageThreshold>-1.3234764337539673e+00</stageThreshold>
      <weakClassifiers>
        <_>
          <internalNodes>
            0 -1 1 -7738484 -2097418 -16908120 -244322324 -538737
            -17369100 -134261249 -10502149</internalNodes>
          <leafValues>
            -5.8070498704910278e-01 6.7200756072998047e-01</leafValues></_>
        <_>
          <internalNodes>
            0 -1 85 1460646841 889294867 -2130509735 1497465089 16941227
            -1995669494 4588207 1064245451</internalNodes>
          <leafValues>
            -6.2131702899932861e-01 5.9648561477661133e-01</leafValues></_>
        <_>
          <internalNodes>
            0 -1 44 -750562541 -788463615 16957715 1426215443 -536770492
            -914227192 -1995887788 -83373411</internalNodes>
          <leafValues>
            -6.1662036180496216e-01 5.3120803833007812e-01</leafValues></_>
        <_>
          <internalNodes>
            0 -1 129 -4205904 -1318895809 -1359069645 532135217
            -1090532208 226492346 -298079464 -1633427494</internalNodes>
          <leafValues>
            -5.5118322372436523e-01 6.1979717016220093e-01</leafValues></_>
        <_>
          <internalNodes>
            0 -1 58 -1722427262 1434521665 102819 421333203 536914160
            -1062436736 -2013216093 1974968403</internalNodes>
          <leafValues>
            -7.2211158275604248e-01 4.5388513803482056e-01</leafValues></_>
        <_>
          <internalNodes>
            0 -1 63 -248916782 -582909951 25167704 1360855049 -234802662
            -1686011392 553672954 -870232005</internalNodes>
          <leafValues>
            -6.2533867359161377e-01 5.4989701509475708e-01</leafValues></_></weakClassifiers></_>
    <!-- stage 3 -->
    <_>
      <maxWeakCount>5</maxWeakCount>
      <stageThreshold>-8.3862626552581787e-01</stageThreshold>
      <weakClassifiers>
        <_>
          <internalNodes>
            0 -1 75 285847708 320442376 17400400 1426690061 135260808
            42483856 8917128 1660970070</internalNodes>
          <leafValues>
            -6.3255816698074341e-01 5.7435899972915649e-01</leafValues></_>
        <_>
          <internalNodes>
            0 -1 10 -1060378930 -968653695 16777553 -42225449 663719
            -1858041717 1125156319 -651321057</internalNodes>
          <leafValues>
            -5.8854371309280396e-01 5.6380343437194824e-01</leafValues></_>
        <_>
          <internalNodes>
            0 -1 122 -1625623573 -1768308349 1073796404 1024823321
            226546168 -2012676094 -2109602818 710463655</internalNodes>
          <leafValues>
            -5.9012401103973389e-01 5.3691542148590088e-01</leafValues></_>
        <_>
          <internalNodes>
            0 -1 61 488700118 1497366802 269516886 1422360964 1208042133
            -1568661503 1212678213 -665468347</internalNodes>
          <leafValues>
            -7.5406777858734131e-01 4.0629300475120544e-01</leafValues></_>
        <_>
          <internalNodes>
            0 -1 26 -2071484361 -1734225615 -2138045991 -783962105 59555
            -1601683438 1080756779 -70284543</internalNodes>
          <leafValues>
            -5.6073284149169922e-01 5.2022022008895874e-01</leafValues></_></weakClassifiers></_>
    <!-- stage 4 -->
    <_>
      <maxWeakCount>7</maxWeakCount>
      <stageThreshold>-9.4659686088562012e-01</stageThreshold>
      <weakClassifiers>
        <_>
          <internalNodes>
            0 -1 23 -1599234047 -1431307465 -721035 -134230223
            -1660979289 -129 -16481 -8385</internalNodes>
          <leafValues>
            -4.4758734107017517e-01 6.6966968774795532e-01</leafValues></_>
        <_>
          <internalNodes>
            0 -1 83 -243140647 136016129 17416849 -1996283583 1921071528
            -2012475378 1267425999 725306635</internalNodes>
          <leafValues>
            -6.2364745140075684e-01 5.3946876525878906e-01</leafValues></_>
        <_>
          <internalNodes>
            0 -1 20 1351326146 -586088423 -1056899068 486670341
            -1206812028 -636362752 166280 -635533284</internalNodes>
          <leafValues>
            -5.3531271219253540e-01 5.4851925373077393e-01</leafValues></_>
        <_>
          <internalNodes>
            0 -1 42 -1626131689 -1719478242 -1862188655 1368539331
            142715041 -1174372216 -1459377603 -24650232</internalNodes>
          <leafValues>
            -6.0102951526641846e-01 5.2779430150985718e-01</leafValues></_>
        <_>
          <internalNodes>
            0 -1 95 -1289784326 297869975 4360 529109101 -528481398
            -402093693 1485013146 1493386560</internalNodes>
          <leafValues>
            -6.8913954496383667e-01 4.1875174641609192e-01</leafValues></_>
        <_>
          <internalNodes>
            0 -1 82 822204635 1972699232 -2004315760 -720105260
            2013790344 1762167040 -926351142 -411090921</internalNodes>
          <leafValues>
            -5.7247155904769897e-01 5.6792134046554565e-01</leafValues></_>
        <_>
          <internalNodes>
            0 -1 30 -998116318 -728674285 138956897 2080474177 134219907
            -930578224 -2139094729 44564583</internalNodes>
          <leafValues>
            -7.8638905286788940e-01 4.5871400833129883e-01</leafValues></_></weakClassifiers></_>
    <!-- stage 5 -->
    <_>
      <maxWeakCount>7</maxWeakCount>
      <stageThreshold>-8.1817841529846191e-01</stageThreshold>
      <weakClassifiers>
        <_>
          <internalNodes>
            0 -1 45 -81798285 -661093120 -1067380154 -1593736952
            406526032 403177732 1801535488 1805371658</internalNodes>
          <leafValues>
            -7.8115499019622803e-01 5.1691579818725586e-01</leafValues></_>
        <_>
          <internalNodes>
            0 -1 127 -214958317 825737127 -311460044 -1082130915
            -285364340 -1921520281 -2000756835 -314572865</internalNodes>
          <leafValues>
            -4.0653845667839050e-01 7.2216516733169556e-01</leafValues></_>
        <_>
          <internalNodes>
            0 -1 40 -2145558493 -2145689583 -2013162785 -582643437
            -2003271549 -1610055672 -805205861 -1324901</internalNodes>
          <leafValues>
            -5.0019776821136475e-01 5.5479806661605835e-01</leafValues></_>
        <_>
          <internalNodes>
            0 -1 135 690123025 -1321746365 268750865 -1828405051
            -1610560490 -391872511 -2004825905 -1734815249</internalNodes>
          <leafValues>
            -5.5021083354949951e-01 5.1997315883636475e-01</leafValues></_>
        <_>
          <internalNodes>
            0 -1 99 -1970937200 89227264 1074939077 1493385296 9597883
            965452288 1343097514 993737752</internalNodes>
          <leafValues>
            -7.3518365621566772e-01 3.7070822715759277e-01</leafValues></_>
        <_>
          <internalNodes>
            0 -1 5 2032007566 -769552375 269501384 -1056565246 34714160
            1250477193 -1610558834 -928265845</internalNodes>
          <leafValues>
            -5.4404842853546143e-01 5.2679497003555298e-01</leafValues></_>
        <_>
          <internalNodes>
            0 -1 136 -1455310985 771846 1083187224 -732815279 114835
            260278664 -778909546 -924129081</internalNodes>
          <leafValues>
            -5.3888463973999023e-01 5.3826802968978882e-01</leafValues></_></weakClassifiers></_>
    <!-- stage 6 -->
    <_>
      <maxWeakCount>6</maxWeakCount>
      <stageThreshold>-4.4401934742927551e-01</stageThreshold>
      <weakClassifiers>
        <_>
          <internalNodes>
            0 -1 31 -1573707741 -1930181161 -4377767 -151126149
            -278792393 -134217729 2105003697 -2213</internalNodes>
          <leafValues>
            -5.2320677042007446e-01 5.7548844814300537e-01</leafValues></_>
        <_>
          <internalNodes>
            0 -1 66 -586955279 -238714364 68174041 521111297 -268400248
            -629110774 524513 597065864</internalNodes>
          <leafValues>
            -5.9584683179855347e-01 4.4298434257507324e-01</leafValues></_>
        <_>
          <internalNodes>
            0 -1 13 -487618330 1716667148 21169223 -1056849599
            1112506538 -804749311 138635387 1810862287</internalNodes>
          <leafValues>
            -6.3643866777420044e-01 4.3001458048820496e-01</leafValues></_>
        <_>
          <internalNodes>
            0 -1 126 -1324338783 -1895198385 1099014542 -1660829116
            285262568 -1450700662 -913782418 403626191</internalNodes>
          <leafValues>
            -6.0416376590728760e-01 4.7247546911239624e-01</leafValues></_>
        <_>
          <internalNodes>
            0 -1 97 164662238 1386436640 -805272949 -83263406
            -2142611048 -1994260346 -1937080150 -599588702</internalNodes>
          <leafValues>
            -5.4503947496414185e-01 4.7361111640930176e-01</leafValues></_>
        <_>
          <internalNodes>
            0 -1 90 -807674444 990462026 -2147482855 -553479552 527838
            -1997954934 -1425527797 1000059160</internalNodes>
          <leafValues>
            -6.6090559959411621e-01 4.0319442749023438e-01</leafValues></_></weakClassifiers></_>
    <!-- stage 7 -->
    <_>
      <maxWeakCount>9</maxWeakCount>
      <stageThreshold>-7.3773765563964844e-01</stageThreshold>
      <weakClassifiers>
        <_>
          <internalNodes>
            0 -1 43 -30986671 -8422053 -1605771 -1281456341 -9572396
            -8519809 -13150340 -198660</internalNodes>
          <leafValues>
            -4.5075756311416626e-01 5.9514927864074707e-01</leafValues></_>
        <_>
          <internalNodes>
            0 -1 18 1352059110 1946222603 1077248052 475502622
            -805101377 -2147352408 -2097135170 -41520177</internalNodes>
          <leafValues>
            -4.9148526787757874e-01 4.9960368871688843e-01</leafValues></_>
        <_>
          <internalNodes>
            0 -1 131 -786827983 285298819 49296 -1862151919 -2121760638
            -1979645944 -905734132 714597275</internalNodes>
          <leafValues>
            -4.9778816103935242e-01 5.0160700082778931e-01</leafValues></_>
        <_>
          <internalNodes>
            0 -1 91 604071057 -1926184424 339763473 -686418909 696466335
            137003163 -2121531176 1787494411</internalNodes>
          <leafValues>
            -6.7803996801376343e-01 3.8601636886596680e-01</leafValues></_>
        <_>
          <internalNodes>
            0 -1 51 -2107670479 -2121154421 -1341128655 -855404527
            -402620284 -1073692663 -938901475 -590888113</internalNodes>
          <leafValues>
            -5.3007829189300537e-01 5.0067961215972900e-01</leafValues></_>
        <_>
          <internalNodes>
            0 -1 72 -528224718 -1722802142 -2146860845 1094987872
            -867644744 -1606281200 142877102 2047371410</internalNodes>
          <leafValues>
            -5.5583769083023071e-01 4.9898537993431091e-01</leafValues></_>
        <_>
          <internalNodes>
            0 -1 33 1556807714 -1290321903 -1178496811 1966670354 221810
            411566089 1107417604 -343162652</internalNodes>
          <leafValues>
            -5.2896857261657715e-01 5.5046105384826660e-01</leafValues></_>
        <_>
          <internalNodes>
            0 -1 88 1878977119 1065205757 -8487143 2111597949 2003224256
            -1740973 -2879238 -6490333</internalNodes>
          <leafValues>
            -5.2216690778732300e-01 6.2695825099945068e-01</leafValues></_>
        <_>
          <internalNodes>
            0 -1 140 -729435888 -2130128744 268468804 268701707
            -2147358584 -1165787136 -905738202 -1870424689</internalNodes>
          <leafValues>
            -6.0519200563430786e-01 4.8824781179428101e-01</leafValues></_></weakClassifiers></_>
    <!-- stage 8 -->
    <_>
      <maxWeakCount>7</maxWeakCount>
      <stageThreshold>-7.3263710737228394e-01</stageThreshold>
      <weakClassifiers>
        <_>
          <internalNodes>
            0 -1 80 -525031 2147385330 -2143322243 -1869252095
            2147055560 2013265787 1065123839 797585191</internalNodes>
          <leafValues>
            -5.0108462572097778e-01 5.5399471521377563e-01</leafValues></_>
        <_>
          <internalNodes>
            0 -1 4 1934148426 -787377966 276 -1861881600 -1560258361
            -501170005 -1979136833 -528437765</internalNodes>
          <leafValues>
            -6.2224233150482178e-01 4.2481470108032227e-01</leafValues></_>
        <_>
          <internalNodes>
            0 -1 34 -799592429 -803634913 -1072328361 -787759061
            135446577 1208123524 -1471573375 -651560437</internalNodes>
          <leafValues>
            -5.1056218147277832e-01 4.9098181724548340e-01</leafValues></_>
        <_>
          <internalNodes>
            0 -1 106 -1709255280 -178716408 1073758481 -1186643966
            146972829 -1974861806 277352840 944318238</internalNodes>
          <leafValues>
            -6.3637501001358032e-01 4.0392383933067322e-01</leafValues></_>
        <_>
          <internalNodes>
            0 -1 78 -1064996 -394297483 -65550 -33720878 -540231734
            -50367041 -1212361457 -716257517</internalNodes>
          <leafValues>
            -4.7233247756958008e-01 5.9768742322921753e-01</leafValues></_>
        <_>
          <internalNodes>
            0 -1 145 -1859676910 286294539 1073807417 -1793746381
            805568522 -385089536 1552419034 -1431918268</internalNodes>
          <leafValues>
            -5.7548761367797852e-01 4.7666034102439880e-01</leafValues></_>
        <_>
          <internalNodes>
            0 -1 55 1996322293 -4 -1342242819 2078474239 -1921252224
            -553746609 350123732 -890980995</internalNodes>
          <leafValues>
            -5.0345277786254883e-01 5.2972871065139771e-01</leafValues></_></weakClassifiers></_>
    <!-- stage 9 -->
    <_>
      <maxWeakCount>7</maxWeakCount>
      <stageThreshold>-6.7452669143676758e-01</stageThreshold>
      <weakClassifiers>
        <_>
          <internalNodes>
            0 -1 6 -269488946 -320671762 -1118732 -156569602 -4657
            2121498623 -258 -8388609</internalNodes>
          <leafValues>
            -4.7933885455131531e-01 5.6630825996398926e-01</leafValues></_>
        <_>
          <internalNodes>
            0 -1 108 -699934460 -2028797695 21168368 -988708791
            -1350530900 -1475214766 -998088575 204052756</internalNodes>
          <leafValues>
            -6.2003993988037109e-01 3.9478278160095215e-01</leafValues></_>
        <_>
          <internalNodes>
            0 -1 93 -286262281 -1016921031 1786234581 -1581254997
            146793132 -1627425040 1364844490 -889066002</internalNodes>
          <leafValues>
            -3.5794842243194580e-01 6.8254482746124268e-01</leafValues></_>
        <_>
          <internalNodes>
            0 -1 11 -802957752 -170164087 419432520 318984770 167948474
            -1967992690 541231785 1542355018</internalNodes>
          <leafValues>
            -5.4228895902633667e-01 4.5027917623519897e-01</leafValues></_>
        <_>
          <internalNodes>
            0 -1 41 1896783891 -1879015085 16842771 360812811 -469071835
            -1073573760 1099010241 -107755445</internalNodes>
          <leafValues>
            -6.1850106716156006e-01 4.1724160313606262e-01</leafValues></_>
        <_>
          <internalNodes>
            0 -1 138 840339918 -1820077799 6423 545314330 -1450666838
            922943490 805880207 -2008350997</internalNodes>
          <leafValues>
            -5.3086012601852417e-01 5.1415961980819702e-01</leafValues></_>
        <_>
          <internalNodes>
            0 -1 64 -586290667 -1711241197 536870929 285542401
            1213335636 -1691809143 1082392742 -1685519813</internalNodes>
          <leafValues>
            -5.6868284940719604e-01 4.8144701123237610e-01</leafValues></_></weakClassifiers></_>
    <!-- stage 10 -->
    <_>
      <maxWeakCount>7</maxWeakCount>
      <stageThreshold>-8.6064243316650391e-01</stageThreshold>
      <weakClassifiers>
        <_>
          <internalNodes>
            0 -1 54 -803945230 -1860894591 33567610 -654243632
            1485441637 8880713 -1987747823 -216729993</internalNodes>
          <leafValues>
            -7.0700639486312866e-01 4.8367029428482056e-01</leafValues></_>
        <_>
          <internalNodes>
            0 -1 25 -1979374587 -637009317 -1056960235 -720793324
            -1995896163 -763312000 -2013232743 -884243813</internalNodes>
          <leafValues>
            -5.6311583518981934e-01 4.2085567116737366e-01</leafValues></_>
        <_>
          <internalNodes>
            0 -1 146 -537004095 -1423900751 -1347260495 86473478
            -1334629004 -151126153 -1423155663 -1182010025</internalNodes>
          <leafValues>
            -4.4840046763420105e-01 5.4845410585403442e-01</leafValues></_>
        <_>
          <internalNodes>
            0 -1 120 -201070311 -1539227629 -2140974813 -1463744235
            -402620368 -133986015 -883980124 -1061633947</internalNodes>
          <leafValues>
            -5.7455879449844360e-01 4.1488867998123169e-01</leafValues></_>
        <_>
          <internalNodes>
            0 -1 137 -1302619756 -1642831854 -1996418895 789266701
            -2130698996 -1962770432 -1610558772 -1898394356</internalNodes>
          <leafValues>
            -6.5058976411819458e-01 3.6951568722724915e-01</leafValues></_>
        <_>
          <internalNodes>
            0 -1 105 -188625070 -197058238 998808212 -175521397
            -1054810996 -872144885 -1056929331 -784218369</internalNodes>
          <leafValues>
            -4.9069577455520630e-01 5.2910518646240234e-01</leafValues></_>
        <_>
          <internalNodes>
            0 -1 28 -123272173 -1912774933 335241215 -1149255940
            -614044908 -1073906724 -93653243 -806378139</internalNodes>
          <leafValues>
            -4.3268296122550964e-01 6.1157000064849854e-01</leafValues></_></weakClassifiers></_>
    <!-- stage 11 -->
    <_>
      <maxWeakCount>9</maxWeakCount>
      <stageThreshold>-7.5674206018447876e-01</stageThreshold>
      <weakClassifiers>
        <_>
          <internalNodes>
            0 -1 7 -971060 -1683955 721348686 1997275400 2021549516
            1575354357 -21047666 -96825684</internalNodes>
          <leafValues>
            -3.6379614472389221e-01 5.8874881267547607e-01</leafValues></_>
        <_>
          <internalNodes>
            0 -1 32 434045715 184586519 -1870585517 -1769914359
            1082610000 -1700263861 578928801 -49291384</internalNodes>
          <leafValues>
            -5.3659164905548096e-01 4.3175187706947327e-01</leafValues></_>
        <_>
          <internalNodes>
            0 -1 68 -1032401968 1426096640 1359499401 1090748557
            1361051840 -2012970878 302537432 -81170757</internalNodes>
          <leafValues>
            -5.1336783170700073e-01 4.1946813464164734e-01</leafValues></_>
        <_>
          <internalNodes>
            0 -1 133 1938480152 285298945 1073956381 -1320861136
            -2129810812 1241677952 -2013245414 -1776315482</internalNodes>
          <leafValues>
            -5.6853950023651123e-01 4.0280732512474060e-01</leafValues></_>
        <_>
          <internalNodes>
            0 -1 102 -72095538 1742593960 -70599078 1932260233
            -588255783 -1947248187 -1024733298 -391187882</internalNodes>
          <leafValues>
            -3.9513835310935974e-01 6.0452008247375488e-01</leafValues></_>
        <_>
          <internalNodes>
            0 -1 96 -937888262 54624470 -1878320775 -2129682427
            -834041655 -1683357671 -743499602 182159392</internalNodes>
          <leafValues>
            -5.0223267078399658e-01 4.9849250912666321e-01</leafValues></_>
        <_>
          <internalNodes>
            0 -1 124 -787516647 75579521 -1593763439 -1509720063
            -1055685366 411574403 -1735439924 -1467946400</internalNodes>
          <leafValues>
            -5.4823446273803711e-01 4.5382726192474365e-01</leafValues></_>
        <_>
          <internalNodes>
            0 -1 19 -491329430 -1807478526 1090617361 1627537409
            1615536521 939753481 1895825603 1226793163</internalNodes>
          <leafValues>
            -5.8130270242691040e-01 4.5041549205780029e-01</leafValues></_>
        <_>
          <internalNodes>
            0 -1 79 -262997062 -1161723506 1074299029 302235854
            134230410 -2013224956 10541056 705478659</internalNodes>
          <leafValues>
            -6.0632818937301636e-01 4.6279630064964294e-01</leafValues></_></weakClassifiers></_>
    <!-- stage 12 -->
    <_>
      <maxWeakCount>7</maxWeakCount>
      <stageThreshold>-1.0652477741241455e+00</stageThreshold>
      <weakClassifiers>
        <_>
          <internalNodes>
            0 -1 70 1222124067 1446550657 1208322059 285229312 6208
            453924897 -915856624 2063307281</internalNodes>
          <leafValues>
            -7.4545454978942871e-01 4.5660376548767090e-01</leafValues></_>
        <_>
          <internalNodes>
            0 -1 27 2030350085 -653097249 553916816 -1756844623
            -2138658687 -1072559486 -2139080575 -81208741</internalNodes>
          <leafValues>
            -6.2224322557449341e-01 3.5908049345016479e-01</leafValues></_>
        <_>
          <internalNodes>
            0 -1 60 1910692017 -1283964953 -602671165 -574867465
            -180993807 -16941377 1966567933 -42421764</internalNodes>
          <leafValues>
            -4.3317618966102600e-01 5.5053585767745972e-01</leafValues></_>
        <_>
          <internalNodes>
            0 -1 111 -514334440 276840456 -1006517195 -546090589
            -2086023040 -133955195 -654245864 999152651</internalNodes>
          <leafValues>
            -5.4330110549926758e-01 4.4014972448348999e-01</leafValues></_>
        <_>
          <internalNodes>
            0 -1 87 1545765368 1427260103 402690952 2043813908
            -263714630 596117642 373893496 1509567104</internalNodes>
          <leafValues>
            -6.7149651050567627e-01 3.4083467721939087e-01</leafValues></_>
        <_>
          <internalNodes>
            0 -1 144 111029 -1861529333 -2146410172 -1920756174
            -717193174 1619165202 -804779268 -1884233328</internalNodes>
          <leafValues>
            -5.5826348066329956e-01 4.1583141684532166e-01</leafValues></_>
        <_>
          <internalNodes>
            0 -1 128 1343923794 671170712 67272767 65812 -1190993871
            -1069510127 1237418772 -464943295</internalNodes>
          <leafValues>
            -6.8915307521820068e-01 3.6866554617881775e-01</leafValues></_></weakClassifiers></_>
    <!-- stage 13 -->
    <_>
      <maxWeakCount>8</maxWeakCount>
      <stageThreshold>-4.1309022903442383e-01</stageThreshold>
      <weakClassifiers>
        <_>
          <internalNodes>
            0 -1 71 -8848620 401047404 -1221168304 2145681404 -9316380
            2146205566 1360885471 1224759170</internalNodes>
          <leafValues>
            -3.8728323578834534e-01 5.5596667528152466e-01</leafValues></_>
        <_>
          <internalNodes>
            0 -1 48 1561531761 1351861523 -1073557373 -1279917949
            1216645285 -2046770560 134300105 -9869568</internalNodes>
          <leafValues>
            -5.5988705158233643e-01 4.1085034608840942e-01</leafValues></_>
        <_>
          <internalNodes>
            0 -1 2 -779496978 1347489796 268583196 -1798307751
            -2147448360 939524097 -1932885745 -368181205</internalNodes>
          <leafValues>
            -6.0504752397537231e-01 3.6645969748497009e-01</leafValues></_>
        <_>
          <internalNodes>
            0 -1 113 -451940012 34029572 268625921 1227329553
            -1224077839 411807746 -670523159 67760933</internalNodes>
          <leafValues>
            -6.4789229631423950e-01 3.6559855937957764e-01</leafValues></_>
        <_>
          <internalNodes>
            0 -1 117 -576760559 1293123585 -2146788068 1125167437
            -1035689418 -1388263288 -536245776 -399652539</internalNodes>
          <leafValues>
            -5.7156056165695190e-01 4.1451081633567810e-01</leafValues></_>
        <_>
          <internalNodes>
            0 -1 110 -601687776 -140761 -278364988 -43090488 -1363632456
            -319165882 526924267 -918899161</internalNodes>
          <leafValues>
            -4.4514843821525574e-01 5.4784739017486572e-01</leafValues></_>
        <_>
          <internalNodes>
            0 -1 116 627516179 1303265058 -537955489 -1225888845
            805154728 -1376879977 -1753422450 -660742209</internalNodes>
          <leafValues>
            -4.1526234149932861e-01 6.4574289321899414e-01</leafValues></_>
        <_>
          <internalNodes>
            0 -1 39 18944003 -732753911 285282320 -757891051 1795375376
            957677569 1661180977 -1793404321</internalNodes>
          <leafValues>
            -6.5257471799850464e-01 3.9213818311691284e-01</leafValues></_></weakClassifiers></_>
    <!-- stage 14 -->
    <_>
      <maxWeakCount>8</maxWeakCount>
      <stageThreshold>-7.6219105720520020e-01</stageThreshold>
      <weakClassifiers>
        <_>
          <internalNodes>
            0 -1 12 -403730770 -1895825425 -1627410439 -4162 107839726
            1610596214 -1778446913 -25193121</internalNodes>
          <leafValues>
            -3.6612021923065186e-01 5.7183635234832764e-01</leafValues></_>
        <_>
          <internalNodes>
            0 -1 29 1870594579 -1610956931 1875798843 -1075839105
            238751312 -813731849 796810885 -202441259</internalNodes>
          <leafValues>
            -4.0067425370216370e-01 5.0623363256454468e-01</leafValues></_>
        <_>
          <internalNodes>
            0 -1 59 2139092978 -1078050913 -8897677 -1107689730 -8923145
            -1082163201 1966370634 -82649889</internalNodes>
          <leafValues>
            -4.0009742975234985e-01 5.3215229511260986e-01</leafValues></_>
        <_>
          <internalNodes>
            0 -1 74 138727616 269620895 1140932769 290689043 1149788593
            -1454077943 214851737 -128235057</internalNodes>
          <leafValues>
            -5.0883507728576660e-01 4.3625912070274353e-01</leafValues></_>
        <_>
          <internalNodes>
            0 -1 65 -12851182 2004569464 1453419835 -704705889 806056168
            -401908487 -1475233576 -874522374</internalNodes>
          <leafValues>
            -4.0291866660118103e-01 5.8779799938201904e-01</leafValues></_>
        <_>
          <internalNodes>
            0 -1 81 1619381464 2030370825 1073746056 -1048575768
            340440036 -519569407 -959819479 -1422180018</internalNodes>
          <leafValues>
            -5.2927738428115845e-01 4.7072222828865051e-01</leafValues></_>
        <_>
          <internalNodes>
            0 -1 73 -327682235 2138930653 1072971765 909770727
            -1682842551 -1351155906 1848728828 -339030019</internalNodes>
          <leafValues>
            -4.4629845023155212e-01 5.5565363168716431e-01</leafValues></_>
        <_>
          <internalNodes>
            0 -1 46 -2054529022 1400899843 268763643 1839223582
            -1572322666 270664192 1375864832 -146310647</internalNodes>
          <leafValues>
            -4.9792820215225220e-01 5.0120145082473755e-01</leafValues></_></weakClassifiers></_>
    <!-- stage 15 -->
    <_>
      <maxWeakCount>8</maxWeakCount>
      <stageThreshold>-8.1134080886840820e-01</stageThreshold>
      <weakClassifiers>
        <_>
          <internalNodes>
            0 -1 115 688035104 495030428 -1056931575 1024790919
            1224984764 140689536 2884056 344929679</internalNodes>
          <leafValues>
            -6.3855421543121338e-01 4.8264983296394348e-01</leafValues></_>
        <_>
          <internalNodes>
            0 -1 3 -775413268 289640790 10486171 -2141142607 -1876772709
            -1073694336 -1877847477 -1605836549</internalNodes>
          <leafValues>
            -5.2369678020477295e-01 4.2109569907188416e-01</leafValues></_>
        <_>
          <internalNodes>
            0 -1 121 -1016341999 -1542377247 -1073643455 -2003304173
            -1988052956 -1341620021 1267907081 -2133463279</internalNodes>
          <leafValues>
            -5.4316473007202148e-01 4.3809455633163452e-01</leafValues></_>
        <_>
          <internalNodes>
            0 -1 98 -921812342 1623336973 -2080370671 1225883779
            -242588246 1509986314 -1584797528 2143852570</internalNodes>
          <leafValues>
            -4.9464040994644165e-01 4.3417233228683472e-01</leafValues></_>
        <_>
          <internalNodes>
            0 -1 118 1094448400 856916178 -1065254896 1539431472
            75563169 -1727987704 -1610118946 793101373</internalNodes>
          <leafValues>
            -5.5119490623474121e-01 4.0749722719192505e-01</leafValues></_>
        <_>
          <internalNodes>
            0 -1 101 -146608450 457441460 -2080347056 1439794198
            677165774 954900550 1812106940 1476478720</internalNodes>
          <leafValues>
            -7.4019533395767212e-01 3.1646233797073364e-01</leafValues></_>
        <_>
          <internalNodes>
            0 -1 49 -1052536803 -1811405548 -2126507587 -788516736
            -2130698240 -616331261 1375879680 -1191051222</internalNodes>
          <leafValues>
            -6.4430540800094604e-01 3.7994280457496643e-01</leafValues></_>
        <_>
          <internalNodes>
            0 -1 69 -497646379 276873216 1073774609 -903675880
            1531282101 2130856129 -2012610390 1034619026</internalNodes>
          <leafValues>
            -5.6334984302520752e-01 4.3966707587242126e-01</leafValues></_></weakClassifiers></_>
    <!-- stage 16 -->
    <_>
      <maxWeakCount>8</maxWeakCount>
      <stageThreshold>-1.1687494516372681e+00</stageThreshold>
      <weakClassifiers>
        <_>
          <internalNodes>
            0 -1 9 2133462986 -402685985 1851002508 1305415628 -75297896
            -8193 2146377566 -16812065</internalNodes>
          <leafValues>
            -3.7837839126586914e-01 5.5083179473876953e-01</leafValues></_>
        <_>
          <internalNodes>
            0 -1 22 -1044209149 1691533512 -1878491116 -773807791
            -1608412908 -1597374310 1776523849 1922932937</internalNodes>
          <leafValues>
            -5.9966129064559937e-01 3.6378028988838196e-01</leafValues></_>
        <_>
          <internalNodes>
            0 -1 125 -579119649 -269015059 -285311884 -445153364
            -268470282 -1879212172 -1644366392 -2030576431</internalNodes>
          <leafValues>
            -3.9989152550697327e-01 5.5141323804855347e-01</leafValues></_>
        <_>
          <internalNodes>
            0 -1 123 -2118470400 -1784491609 -2147466943 570749581
            143671786 -2147188605 -1463237985 140521919</internalNodes>
          <leafValues>
            -7.3963749408721924e-01 3.1917127966880798e-01</leafValues></_>
        <_>
          <internalNodes>
            0 -1 100 -1600093806 -1861990399 1610793682 -804548608
            -775896585 -1631270192 -1050311327 -121402736</internalNodes>
          <leafValues>
            -4.8847061395645142e-01 4.4545504450798035e-01</leafValues></_>
        <_>
          <internalNodes>
            0 -1 47 -1892943087 2082158194 -1390471041 -1579835938
            -588646573 1319977778 -28839563 -277622885</internalNodes>
          <leafValues>
            -4.5935124158859253e-01 5.5094230175018311e-01</leafValues></_>
        <_>
          <internalNodes>
            0 -1 24 167897228 -1258225647 1342242820 -1945108270
            713785732 -1694498815 155189432 -1473469503</internalNodes>
          <leafValues>
            -5.3097552061080933e-01 4.7849911451339722e-01</leafValues></_>
        <_>
          <internalNodes>
            0 -1 130 -1789325264 -1827635063 1342443602 260620370 100751
            -1283358550 1079034110 -1786971969</internalNodes>
          <leafValues>
            -6.0492718219757080e-01 3.7888109683990479e-01</leafValues></_></weakClassifiers></_>
    <!-- stage 17 -->
    <_>
      <maxWeakCount>11</maxWeakCount>
      <stageThreshold>-9.1960358619689941e-01</stageThreshold>
      <weakClassifiers>
        <_>
          <internalNodes>
            0 -1 89 1334755676 -1611747754 -25092099 -1477498948
            -1930674708 -20021252 -1664527156 332595285</internalNodes>
          <leafValues>
            -4.5199063420295715e-01 5.0554132461547852e-01</leafValues></_>
        <_>
          <internalNodes>
            0 -1 16 -83781300 16785408 1342462380 1089700097 1353236684
            956827648 -1416984338 -1162082245</internalNodes>
          <leafValues>
            -5.2320539951324463e-01 4.1748583316802979e-01</leafValues></_>
        <_>
          <internalNodes>
            0 -1 35 1936392725 1361211403 245826 1122418703 21606816
            939659272 553857025 -16195575</internalNodes>
          <leafValues>
            -5.9562540054321289e-01 3.7094739079475403e-01</leafValues></_>
        <_>
          <internalNodes>
            0 -1 76 -12845872 -86342 -17056948 -4718926 1468462288
            -1075838982 1995280794 24112778</internalNodes>
          <leafValues>
            -4.5658624172210693e-01 4.8504009842872620e-01</leafValues></_>
        <_>
          <internalNodes>
            0 -1 134 -1823483561 -972718010 1879052433 -2041556970
            -1610563198 -1356660728 1879081036 -1469793392</internalNodes>
          <leafValues>
            -4.8869541287422180e-01 4.4433304667472839e-01</leafValues></_>
        <_>
          <internalNodes>
            0 -1 62 -171187438 -607109119 1361313945 -1860759424
            1620353161 1212878913 1241565385 -591336208</internalNodes>
          <leafValues>
            -4.7081804275512695e-01 5.0794631242752075e-01</leafValues></_>
        <_>
          <internalNodes>
            0 -1 109 1930700290 134399507 536887705 201409553 -510680005
            453607433 -889155733 89145414</internalNodes>
          <leafValues>
            -6.4249676465988159e-01 3.7159162759780884e-01</leafValues></_>
        <_>
          <internalNodes>
            0 -1 21 -965751168 1342419027 1075089409 2013451024
            536895530 -1711276032 -1862127448 -892082005</internalNodes>
          <leafValues>
            -4.8883208632469177e-01 5.1398402452468872e-01</leafValues></_>
        <_>
          <internalNodes>
            0 -1 94 -1022176768 -2012954608 1090588980 419463168
            -930578262 201359491 142415 790814346</internalNodes>
          <leafValues>
            -5.3480005264282227e-01 4.7253170609474182e-01</leafValues></_>
        <_>
          <internalNodes>
            0 -1 103 -691085064 -1761538040 18235428 -1861610208
            680121007 -2071807478 -2123791576 1264306659</internalNodes>
          <leafValues>
            -5.2262306213378906e-01 4.6013042330741882e-01</leafValues></_>
        <_>
          <internalNodes>
            0 -1 142 -1327955269 68520960 1342505035 1380131043
            1493927312 -518488064 -627920752 -2072917607</internalNodes>
          <leafValues>
            -5.3374326229095459e-01 4.5824512839317322e-01</leafValues></_></weakClassifiers></_>
    <!-- stage 18 -->
    <_>
      <maxWeakCount>9</maxWeakCount>
      <stageThreshold>-7.9178690910339355e-01</stageThreshold>
      <weakClassifiers>
        <_>
          <internalNodes>
            0 -1 52 26134592 361844835 4259939 8855681 -2139059531
            -1730051966 1073741925 31801431</internalNodes>
          <leafValues>
            -6.1514192819595337e-01 4.6375682950019836e-01</leafValues></_>
        <_>
          <internalNodes>
            0 -1 139 -85094880 285716610 67309729 -1056239415 -536147200
            -2147016695 235544 -1417417589</internalNodes>
          <leafValues>
            -5.0189089775085449e-01 4.0770092606544495e-01</leafValues></_>
        <_>
          <internalNodes>
            0 -1 114 -800778403 687079295 -33652867 1635254055
            2113469930 -302125085 -1367683751 1210625224</internalNodes>
          <leafValues>
            -4.3889746069908142e-01 4.8421722650527954e-01</leafValues></_>
        <_>
          <internalNodes>
            0 -1 56 -511105995 1369489425 -2146959029 -1056894845
            -779611776 -1432696184 170623616 -896883719</internalNodes>
          <leafValues>
            -4.6983206272125244e-01 4.7784098982810974e-01</leafValues></_>
        <_>
          <internalNodes>
            0 -1 132 -1615595215 -1213383822 -21004446 -774277
            -833094073 234848255 -570524469 -1938685955</internalNodes>
          <leafValues>
            -3.9135172963142395e-01 5.5959206819534302e-01</leafValues></_>
        <_>
          <internalNodes>
            0 -1 37 169547827 16875537 2212101 -871792626 -192839145
            268468240 590277 -1190174680</internalNodes>
          <leafValues>
            -6.8953651189804077e-01 3.3167138695716858e-01</leafValues></_>
        <_>
          <internalNodes>
            0 -1 104 -1524627502 1350597143 -2147482874 -935243120
            899318282 420511954 -797275762 1539020034</internalNodes>
          <leafValues>
            -5.8494120836257935e-01 3.9164495468139648e-01</leafValues></_>
        <_>
          <internalNodes>
            0 -1 92 -1188655412 -1096351836 -1164616653 -1478164872
            -23617905 -152700948 -1106209078 -421727012</internalNodes>
          <leafValues>
            -4.6060568094253540e-01 5.4161375761032104e-01</leafValues></_>
        <_>
          <internalNodes>
            0 -1 77 -979770480 -1660943220 67109012 -1123909093
            -1039089495 -1911742431 -2146398078 -519978462</internalNodes>
          <leafValues>
            -4.9464827775955200e-01 5.0904196500778198e-01</leafValues></_></weakClassifiers></_>
    <!-- stage 19 -->
    <_>
      <maxWeakCount>9</maxWeakCount>
      <stageThreshold>-6.4709085226058960e-01</stageThreshold>
      <weakClassifiers>
        <_>
          <internalNodes>
            0 -1 17 1147120364 -1538915968 301989912 -1677721530
            606101699 -1568636927 457244806 1545030731</internalNodes>
          <leafValues>
            -5.1181101799011230e-01 4.8810499906539917e-01</leafValues></_>
        <_>
          <internalNodes>
            0 -1 57 298834886 -1861152745 268959745 1426147529
            -2138996492 8407040 -939521520 -1948286641</internalNodes>
          <leafValues>
            -5.1694768667221069e-01 3.9942252635955811e-01</leafValues></_>
        <_>
          <internalNodes>
            0 -1 143 192668595 662627566 1878977119 -1882596481
            -42469495 -595591308 -69464688 -1386418734</internalNodes>
          <leafValues>
            -4.0366020798683167e-01 5.2415019273757935e-01</leafValues></_>
        <_>
          <internalNodes>
            0 -1 112 -1549594128 16056512 -2121916327 -1607794605
            146948125 -1171617408 -1609759527 -1071300352</internalNodes>
          <leafValues>
            -6.0021203756332397e-01 3.4596207737922668e-01</leafValues></_>
        <_>
          <internalNodes>
            0 -1 84 -832076942 -4378642 -11094046 -151344536 -134611729
            398556718 -955223859 -749697141</internalNodes>
          <leafValues>
            -4.1691845655441284e-01 5.3953689336776733e-01</leafValues></_>
        <_>
          <internalNodes>
            0 -1 36 445717529 -1323266030 -2146393807 1501636186
            -1006632080 -904921068 -1205696176 -657842108</internalNodes>
          <leafValues>
            -4.6023538708686829e-01 4.9090796709060669e-01</leafValues></_>
        <_>
          <internalNodes>
            0 -1 119 -837936464 766151201 -1686759726 -1596106251
            1973404546 -394791489 -429419845 -1427536358</internalNodes>
          <leafValues>
            -4.5586821436882019e-01 5.0956797599792480e-01</leafValues></_>
        <_>
          <internalNodes>
            0 -1 141 -46663877 322174702 -8413399 1975517105 1068482366
            -1224737121 -16910704 -1732903621</internalNodes>
          <leafValues>
            -4.3833813071250916e-01 5.4778200387954712e-01</leafValues></_>
        <_>
          <internalNodes>
            0 -1 107 1897601920 1099604233 272892311 -788102132
            -1577049723 -2094530557 -2071878012 1350922626</internalNodes>
          <leafValues>
            -6.3366377353668213e-01 3.8846307992935181e-01</leafValues></_></weakClassifiers></_></stages>
  <features>
    <_>
      <rect>
        1 1 25 12</rect></_>
    <_>
      <rect>
        1 11 17 8</rect></_>
    <_>
      <rect>
        1 15 16 8</rect></_>
    <_>
      <rect>
        2 0 18 11</rect></_>
    <_>
      <rect>
        2 6 18 9</rect></_>
    <_>
      <rect>
        3 5 23 11</rect></_>
    <_>
      <rect>
        3 15 12 6</rect></_>
    <_>
      <rect>
        3 22 22 6</rect></_>
    <_>
      <rect>
        4 1 11 12</rect></_>
    <_>
      <rect>
        4 5 21 10</rect></_>
    <_>
      <rect>
        5 0 10 11</rect></_>
    <_>
      <rect>
        5 0 23 13</rect></_>
    <_>
      <rect>
        6 1 11 9</rect></_>
    <_>
      <rect>
        7 0 8 11</rect></_>
    <_>
      <rect>
        7 3 14 10</rect></_>
    <_>
      <rect>
        8 6 6 8</rect></_>
    <_>
      <rect>
        8 18 17 7</rect></_>
    <_>
      <rect>
        9 10 5 8</rect></_>
    <_>
      <rect>
        9 21 8 5</rect></_>
    <_>
      <rect>
        10 3 4 11</rect></_>
    <_>
      <rect>
        10 22 20 6</rect></_>
    <_>
      <rect>
        11 16 2 4</rect></_>
    <_>
      <rect>
        13 7 10 7</rect></_>
    <_>
      <rect>
        14 3 9 7</rect></_>
    <_>
      <rect>
        14 28 15 4</rect></_>
    <_>
      <rect>
        15 0 7 12</rect></_>
    <_>
      <rect>
        15 0 9 8</rect></_>
    <_>
      <rect>
        15 7 9 9</rect></_>
    <_>
      <rect>
        15 19 2 2</rect></_>
    <_>
      <rect>
        16 21 3 3</rect></_>
    <_>
      <rect>
        17 4 13 7</rect></_>
    <_>
      <rect>
        17 8 7 5</rect></_>
    <_>
      <rect>
        17 16 3 4</rect></_>
    <_>
      <rect>
        17 18 2 2</rect></_>
    <_>
      <rect>
        18 12 5 5</rect></_>
    <_>
      <rect>
        18 14 4 7</rect></_>
    <_>
      <rect>
        18 24 2 1</rect></_>
    <_>
      <rect>
        19 9 4 5</rect></_>
    <_>
      <rect>
        19 14 6 5</rect></_>
    <_>
      <rect>
        19 24 4 3</rect></_>
    <_>
      <rect>
        20 1 7 7</rect></_>
    <_>
      <rect>
        20 9 6 6</rect></_>
    <_>
      <rect>
        20 10 5 7</rect></_>
    <_>
      <rect>
        20 12 6 9</rect></_>
    <_>
      <rect>
        20 17 6 5</rect></_>
    <_>
      <rect>
        21 18 10 5</rect></_>
    <_>
      <rect>
        21 23 1 1</rect></_>
    <_>
      <rect>
        22 20 2 1</rect></_>
    <_>
      <rect>
        23 11 4 8</rect></_>
    <_>
      <rect>
        23 26 5 2</rect></_>
    <_>
      <rect>
        24 14 9 8</rect></_>
    <_>
      <rect>
        25 0 5 7</rect></_>
    <_>
      <rect>
        26 3 8 6</rect></_>
    <_>
      <rect>
        26 3 14 7</rect></_>
    <_>
      <rect>
        26 13 7 4</rect></_>
    <_>
      <rect>
        27 25 11 5</rect></_>
    <_>
      <rect>
        27 28 11 4</rect></_>
    <_>
      <rect>
        28 6 6 5</rect></_>
    <_>
      <rect>
        29 4 9 6</rect></_>
    <_>
      <rect>
        29 18 5 4</rect></_>
    <_>
      <rect>
        30 11 3 4</rect></_>
    <_>
      <rect>
        30 11 5 4</rect></_>
    <_>
      <rect>
        30 17 1 2</rect></_>
    <_>
      <rect>
        31 16 5 3</rect></_>
    <_>
      <rect>
        31 18 10 7</rect></_>
    <_>
      <rect>
        31 24 1 1</rect></_>
    <_>
      <rect>
        32 2 11 8</rect></_>
    <_>
      <rect>
        32 11 7 7</rect></_>
    <_>
      <rect>
        32 15 4 8</rect></_>
    <_>
      <rect>
        32 15 9 7</rect></_>
    <_>
      <rect>
        32 19 9 5</rect></_>
    <_>
      <rect>
        33 17 2 5</rect></_>
    <_>
      <rect>
        33 18 2 3</rect></_>
    <_>
      <rect>
        33 25 6 5</rect></_>
    <_>
      <rect>
        34 9 2 4</rect></_>
    <_>
      <rect>
        34 13 9 3</rect></_>
    <_>
      <rect>
        34 16 2 4</rect></_>
    <_>
      <rect>
        35 2 9 5</rect></_>
    <_>
      <rect>
        35 11 2 5</rect></_>
    <_>
      <rect>
        35 11 3 4</rect></_>
    <_>
      <rect>
        35 12 5 6</rect></_>
    <_>
      <rect>
        35 16 3 3</rect></_>
    <_>
      <rect>
        35 17 3 2</rect></_>
    <_>
      <rect>
        36 9 4 8</rect></_>
    <_>
      <rect>
        36 18 1 2</rect></_>
    <_>
      <rect>
        37 4 8 10</rect></_>
    <_>
      <rect>
        37 8 8 7</rect></_>
    <_>
      <rect>
        37 11 6 5</rect></_>
    <_>
      <rect>
        37 17 2 2</rect></_>
    <_>
      <rect>
        38 7 4 5</rect></_>
    <_>
      <rect>
        38 11 5 6</rect></_>
    <_>
      <rect>
        38 16 6 4</rect></_>
    <_>
      <rect>
        38 18 2 1</rect></_>
    <_>
      <rect>
        38 19 1 1</rect></_>
    <_>
      <rect>
        38 19 4 2</rect></_>
    <_>
      <rect>
        39 9 3 6</rect></_>
    <_>
      <rect>
        39 12 2 2</rect></_>
    <_>
      <rect>
        39 15 1 3</rect></_>
    <_>
      <rect>
        39 15 4 3</rect></_>
    <_>
      <rect>
        39 15 4 4</rect></_>
    <_>
      <rect>
        39 17 1 2</rect></_>
    <_>
      <rect>
        39 18 1 1</rect></_>
    <_>
      <rect>
        39 19 1 1</rect></_>
    <_>
      <rect>
        39 19 1 2</rect></_>
    <_>
      <rect>
        40 16 3 3</rect></_>
    <_>
      <rect>
        40 18 1 1</rect></_>
    <_>
      <rect>
        41 1 6 10</rect></_>
    <_>
      <rect>
        41 2 8 4</rect></_>
    <_>
      <rect>
        41 6 8 5</rect></_>
    <_>
      <rect>
        41 14 3 3</rect></_>
    <_>
      <rect>
        41 18 1 1</rect></_>
    <_>
      <rect>
        42 4 11 12</rect></_>
    <_>
      <rect>
        42 10 2 2</rect></_>
    <_>
      <rect>
        43 9 6 5</rect></_>
    <_>
      <rect>
        43 13 3 2</rect></_>
    <_>
      <rect>
        43 13 5 6</rect></_>
    <_>
      <rect>
        43 23 3 1</rect></_>
    <_>
      <rect>
        45 7 4 3</rect></_>
    <_>
      <rect>
        45 16 8 7</rect></_>
    <_>
      <rect>
        45 18 1 1</rect></_>
    <_>
      <rect>
        46 8 3 2</rect></_>
    <_>
      <rect>
        46 10 3 2</rect></_>
    <_>
      <rect>
        47 7 5 8</rect></_>
    <_>
      <rect>
        47 12 5 6</rect></_>
    <_>
      <rect>
        47 14 3 2</rect></_>
    <_>
      <rect>
        48 8 5 3</rect></_>
    <_>
      <rect>
        48 12 5 6</rect></_>
    <_>
      <rect>
        48 17 8 4</rect></_>
    <_>
      <rect>
        49 15 3 1</rect></_>
    <_>
      <rect>
        50 8 8 9</rect></_>
    <_>
      <rect>
        50 14 4 6</rect></_>
    <_>
      <rect>
        50 15 8 6</rect></_>
    <_>
      <rect>
        50 16 5 3</rect></_>
    <_>
      <rect>
        51 9 6 10</rect></_>
    <_>
      <rect>
        52 11 2 2</rect></_>
    <_>
      <rect>
        52 12 3 6</rect></_>
    <_>
      <rect>
        52 13 3 2</rect></_>
    <_>
      <rect>
        53 8 4 5</rect></_>
    <_>
      <rect>
        53 16 2 3</rect></_>
    <_>
      <rect>
        54 1 6 13</rect></_>
    <_>
      <rect>
        54 7 6 7</rect></_>
    <_>
      <rect>
        54 15 6 5</rect></_>
    <_>
      <rect>
        55 11 5 4</rect></_>
    <_>
      <rect>
        55 13 2 2</rect></_>
    <_>
      <rect>
        55 13 3 3</rect></_>
    <_>
      <rect>
        55 15 4 4</rect></_>
    <_>
      <rect>
        57 6 6 11</rect></_></features></cascade>
</opencv_storage>
